{
  "objective": "binary:logistic",
  "feature_names": [
    "weather_score",
    "vessel_delta_score",
    "port_congestion_score",
    "traffic_score",
    "geopolitical_score",
    "composite_risk_score",
    "sla_hours_remaining",
    "sla_urgency_multiplier",
    "carrier_encoded",
    "lane_encoded"
  ],
  "base_margin": 0.0,
  "n_trees": 150,
  "trees": [
    {
      "split_indices": [
        6,
        6,
        6,
        5,
        5,
        5,
        6,
        6,
        -1,
        4,
        3,
        4,
        5,
        5,
        5,
        5,
        3,
        3,
        3,
        9,
        5,
        2,
        1,
        4,
        9,
        5,
        3,
        -1,
        2,
        -1,
        -1,
        -1,
        -1,
        -1,
        -1,
        -1,
        -1,
        -1,
        -1,
        -1,
        -1,
        -1,
        -1,
        -1,
        -1,
        -1,
        -1,
        -1,
        -1,
        -1,
        -1,
        -1,
        -1,
        -1,
        -1
      ],
      "split_conditions": [
        61.4599991,
        48.4399986,
        71.7699966,
        29.3500004,
        30.9799995,
        30.6000004,
        92.9000015,
        34.4500008,
        0.0,
        5.94999981,
        60.8899994,
        36.8300018,
        39.5800018,
        44.3699989,
        58.0800018,
        14.9700003,
        44.3300018,
        32.2700005,
        9.27000046,
        1.0,
        40.6100006,
        49.6599998,
        12.9399996,
        13.9700003,
        7.0,
        40.0800018,
        30.3099995,
        0.0,
        65.4300003,
        0.0,
        0.0,
        0.0,
        0.0,
        0.0,
        0.0,
        0.0,
        0.0,
        0.0,
        0.0,
        0.0,
        0.0,
        0.0,
        0.0,
        0.0,
        0.0,
        0.0,
        0.0,
        0.0,
        0.0,
        0.0,
        0.0,
        0.0,
        0.0,
        0.0,
        0.0
      ],
      "left_children": [
        1,
        3,
        5,
        7,
        9,
        11,
        13,
        15,
        -1,
        17,
        19,
        21,
        23,
        25,
        27,
        29,
        31,
        33,
        35,
        37,
        39,
        41,
        43,
        45,
        47,
        49,
        51,
        -1,
        53,
        -1,
        -1,
        -1,
        -1,
        -1,
        -1,
        -1,
        -1,
        -1,
        -1,
        -1,
        -1,
        -1,
        -1,
        -1,
        -1,
        -1,
        -1,
        -1,
        -1,
        -1,
        -1,
        -1,
        -1,
        -1,
        -1
      ],
      "right_children": [
        2,
        4,
        6,
        8,
        10,
        12,
        14,
        16,
        -1,
        18,
        20,
        22,
        24,
        26,
        28,
        30,
        32,
        34,
        36,
        38,
        40,
        42,
        44,
        46,
        48,
        50,
        52,
        -1,
        54,
        -1,
        -1,
        -1,
        -1,
        -1,
        -1,
        -1,
        -1,
        -1,
        -1,
        -1,
        -1,
        -1,
        -1,
        -1,
        -1,
        -1,
        -1,
        -1,
        -1,
        -1,
        -1,
        -1,
        -1,
        -1,
        -1
      ],
      "base_weights": [
        0.0,
        0.0,
        0.0,
        0.0,
        0.0,
        0.0,
        0.0,
        0.0,
        0.153637886,
        0.0,
        0.0,
        0.0,
        0.0,
        0.0,
        0.0,
        0.0,
        0.0,
        0.0,
        0.0,
        0.0,
        0.0,
        0.0,
        0.0,
        0.0,
        0.0,
        0.0,
        0.0,
        -0.157618284,
        0.0,
        0.0061446391,
        0.142947063,
        0.0783983469,
        -0.101818174,
        0.076219447,
        -0.0378885604,
        -0.00878966879,
        -0.103193931,
        -0.0304903015,
        0.0761587247,
        -0.110769235,
        0.0061446391,
        -0.138838768,
        -0.0116829909,
        0.0859173834,
        -0.0799999982,
        0.0372853838,
        -0.0671934336,
        0.0632274225,
        -0.088888891,
        -0.147482052,
        -0.0871501416,
        0.0466715656,
        -0.0495506115,
        -0.0960000008,
        0.0061446391
      ]
    },
    {
      "split_indices": [
        6,
        7,
        6,
        5,
        5,
        5,
        5,
        3,
        3,
        6,
        -1,
        2,
        5,
        6,
        6,
        2,
        -1,
        5,
        8,
        -1,
        6,
        -1,
        1,
        3,
        9,
        5,
        -1,
        9,
        -1,
        -1,
        -1,
        -1,
        -1,
        -1,
        -1,
        -1,
        -1,
        -1,
        -1,
        -1,
        -1,
        -1,
        -1,
        -1,
        -1,
        -1,
        -1
      ],
      "split_conditions": [
        62.0099983,
        1.79999995,
        71.7699966,
        32.1599998,
        32.1199989,
        30.6000004,
        50.8499985,
        39.2799988,
        60.8899994,
        25.5,
        0.0,
        11.3900003,
        39.9399986,
        92.9000015,
        112.800003,
        19.8799992,
        0.0,
        46.6300011,
        1.0,
        0.0,
        41.0099983,
        0.0,
        5.30999994,
        9.65999985,
        3.0,
        40.0800018,
        0.0,
        5.0,
        0.0,
        0.0,
        0.0,
        0.0,
        0.0,
        0.0,
        0.0,
        0.0,
        0.0,
        0.0,
        0.0,
        0.0,
        0.0,
        0.0,
        0.0,
        0.0,
        0.0,
        0.0,
        0.0
      ],
      "left_children": [
        1,
        3,
        5,
        7,
        9,
        11,
        13,
        15,
        17,
        19,
        -1,
        21,
        23,
        25,
        27,
        29,
        -1,
        31,
        33,
        -1,
        35,
        -1,
        37,
        39,
        41,
        43,
        -1,
        45,
        -1,
        -1,
        -1,
        -1,
        -1,
        -1,
        -1,
        -1,
        -1,
        -1,
        -1,
        -1,
        -1,
        -1,
        -1,
        -1,
        -1,
        -1,
        -1
      ],
      "right_children": [
        2,
        4,
        6,
        8,
        10,
        12,
        14,
        16,
        18,
        20,
        -1,
        22,
        24,
        26,
        28,
        30,
        -1,
        32,
        34,
        -1,
        36,
        -1,
        38,
        40,
        42,
        44,
        -1,
        46,
        -1,
        -1,
        -1,
        -1,
        -1,
        -1,
        -1,
        -1,
        -1,
        -1,
        -1,
        -1,
        -1,
        -1,
        -1,
        -1,
        -1,
        -1,
        -1
      ],
      "base_weights": [
        0.0,
        0.0,
        0.0,
        0.0,
        0.0,
        0.0,
        0.0,
        0.0,
        0.0,
        0.0,
        0.14498508,
        0.0,
        0.0,
        0.0,
        0.0,
        0.0,
        -0.127429023,
        0.0,
        0.0,
        0.145199865,
        0.0,
        -0.0103436457,
        0.0,
        0.0,
        0.0,
        0.0,
        -0.146908537,
        0.0,
        -0.135440171,
        -0.0816954523,
        0.00185928331,
        0.0515779331,
        0.133876458,
        0.00814173184,
        -0.107904099,
        0.103554457,
        0.0574234053,
        -0.0117697651,
        -0.139556676,
        0.0953396857,
        -0.053507369,
        -0.0558944419,
        0.0631327182,
        -0.140826806,
        -0.065528512,
        -0.0620720945,
        0.0577691905
      ]
    },
    {
      "split_indices": [
        6,
        7,
        6,
        0,
        5,
        5,
        5,
        2,
        5,
        6,
        5,
        3,
        2,
        6,
        8,
        6,
        0,
        0,
        0,
        6,
        9,
        6,
        -1,
        2,
        -1,
        6,
        0,
        5,
        -1,
        -1,
        6,
        -1,
        -1,
        -1,
        -1,
        -1,
        -1,
        -1,
        -1,
        -1,
        -1,
        -1,
        -1,
        -1,
        -1,
        -1,
        -1,
        -1,
        -1,
        -1,
        -1,
        -1,
        -1,
        -1,
        -1
      ],
      "split_conditions": [
        62.0099983,
        1.79999995,
        71.7699966,
        47.0099983,
        25.2700005,
        30.6900005,
        58.0800018,
        50.2700005,
        41.3600006,
        42.5299988,
        34.1899986,
        10.8500004,
        23.4099998,
        92.9000015,
        6.0,
        51.6899986,
        40.2099991,
        59.5200005,
        58.0699997,
        25.5,
        2.0,
        45.4300003,
        0.0,
        31.3999996,
        0.0,
        65.3300018,
        62.4199982,
        40.0800018,
        0.0,
        0.0,
        103.080002,
        0.0,
        0.0,
        0.0,
        0.0,
        0.0,
        0.0,
        0.0,
        0.0,
        0.0,
        0.0,
        0.0,
        0.0,
        0.0,
        0.0,
        0.0,
        0.0,
        0.0,
        0.0,
        0.0,
        0.0,
        0.0,
        0.0,
        0.0,
        0.0
      ],
      "left_children": [
        1,
        3,
        5,
        7,
        9,
        11,
        13,
        15,
        17,
        19,
        21,
        23,
        25,
        27,
        29,
        31,
        33,
        35,
        37,
        39,
        41,
        43,
        -1,
        45,
        -1,
        47,
        49,
        51,
        -1,
        -1,
        53,
        -1,
        -1,
        -1,
        -1,
        -1,
        -1,
        -1,
        -1,
        -1,
        -1,
        -1,
        -1,
        -1,
        -1,
        -1,
        -1,
        -1,
        -1,
        -1,
        -1,
        -1,
        -1,
        -1,
        -1
      ],
      "right_children": [
        2,
        4,
        6,
        8,
        10,
        12,
        14,
        16,
        18,
        20,
        22,
        24,
        26,
        28,
        30,
        32,
        34,
        36,
        38,
        40,
        42,
        44,
        -1,
        46,
        -1,
        48,
        50,
        52,
        -1,
        -1,
        54,
        -1,
        -1,
        -1,
        -1,
        -1,
        -1,
        -1,
        -1,
        -1,
        -1,
        -1,
        -1,
        -1,
        -1,
        -1,
        -1,
        -1,
        -1,
        -1,
        -1,
        -1,
        -1,
        -1,
        -1
      ],
      "base_weights": [
        0.0,
        0.0,
        0.0,
        0.0,
        0.0,
        0.0,
        0.0,
        0.0,
        0.0,
        0.0,
        0.0,
        0.0,
        0.0,
        0.0,
        0.0,
        0.0,
        0.0,
        0.0,
        0.0,
        0.0,
        0.0,
        0.0,
        0.137705863,
        0.0,
        -0.131048977,
        0.0,
        0.0,
        0.0,
        -0.136722758,
        -0.0944255739,
        0.0,
        0.00116033375,
        -0.0677440092,
        0.0644212961,
        -0.0533463843,
        0.0675216839,
        -0.0314580463,
        0.0552087352,
        0.138238117,
        0.13243632,
        0.0719617307,
        0.072724767,
        -0.0888492689,
        0.124412,
        0.0496698618,
        -0.0971929654,
        0.0287453756,
        -0.0110235829,
        -0.1281216,
        -0.0157585386,
        0.0843055546,
        -0.127598748,
        -0.0524280816,
        0.102283962,
        0.00918276049
      ]
    },
    {
      "split_indices": [
        6,
        6,
        6,
        5,
        0,
        0,
        5,
        4,
        4,
        5,
        9,
        4,
        2,
        6,
        6,
        0,
        2,
        -1,
        5,
        6,
        2,
        -1,
        4,
        4,
        0,
        8,
        9,
        5,
        -1,
        9,
        2,
        -1,
        -1,
        -1,
        -1,
        -1,
        -1,
        -1,
        -1,
        -1,
        -1,
        -1,
        -1,
        -1,
        -1,
        -1,
        -1,
        -1,
        -1,
        -1,
        -1,
        -1,
        -1,
        -1,
        -1,
        -1,
        -1
      ],
      "split_conditions": [
        62.0099983,
        48.4399986,
        71.7699966,
        25.2700005,
        55.5099983,
        62.4199982,
        50.8499985,
        31.0900002,
        0.850000024,
        28.6299992,
        1.0,
        58.7900009,
        26.5699997,
        87.4899979,
        103.080002,
        5.88999987,
        25.6800003,
        0.0,
        34.1899986,
        51.6899986,
        51.5200005,
        0.0,
        6.55999994,
        4.98999977,
        36.1500015,
        3.0,
        3.0,
        42.8499985,
        0.0,
        3.0,
        79.1699982,
        0.0,
        0.0,
        0.0,
        0.0,
        0.0,
        0.0,
        0.0,
        0.0,
        0.0,
        0.0,
        0.0,
        0.0,
        0.0,
        0.0,
        0.0,
        0.0,
        0.0,
        0.0,
        0.0,
        0.0,
        0.0,
        0.0,
        0.0,
        0.0,
        0.0,
        0.0
      ],
      "left_children": [
        1,
        3,
        5,
        7,
        9,
        11,
        13,
        15,
        17,
        19,
        21,
        23,
        25,
        27,
        29,
        31,
        33,
        -1,
        35,
        37,
        39,
        -1,
        41,
        43,
        45,
        47,
        49,
        51,
        -1,
        53,
        55,
        -1,
        -1,
        -1,
        -1,
        -1,
        -1,
        -1,
        -1,
        -1,
        -1,
        -1,
        -1,
        -1,
        -1,
        -1,
        -1,
        -1,
        -1,
        -1,
        -1,
        -1,
        -1,
        -1,
        -1,
        -1,
        -1
      ],
      "right_children": [
        2,
        4,
        6,
        8,
        10,
        12,
        14,
        16,
        18,
        20,
        22,
        24,
        26,
        28,
        30,
        32,
        34,
        -1,
        36,
        38,
        40,
        -1,
        42,
        44,
        46,
        48,
        50,
        52,
        -1,
        54,
        56,
        -1,
        -1,
        -1,
        -1,
        -1,
        -1,
        -1,
        -1,
        -1,
        -1,
        -1,
        -1,
        -1,
        -1,
        -1,
        -1,
        -1,
        -1,
        -1,
        -1,
        -1,
        -1,
        -1,
        -1,
        -1,
        -1
      ],
      "base_weights": [
        0.0,
        0.0,
        0.0,
        0.0,
        0.0,
        0.0,
        0.0,
        0.0,
        0.0,
        0.0,
        0.0,
        0.0,
        0.0,
        0.0,
        0.0,
        0.0,
        0.0,
        0.0195028353,
        0.0,
        0.0,
        0.0,
        -0.0401859656,
        0.0,
        0.0,
        0.0,
        0.0,
        0.0,
        0.0,
        -0.129538938,
        0.0,
        0.0,
        -0.0635652542,
        0.103578359,
        -0.121884786,
        0.0649929345,
        0.114375867,
        0.129416019,
        -0.00953253172,
        -0.0975376144,
        -0.0153130312,
        0.0574099757,
        0.0153047293,
        0.110939339,
        0.0437042452,
        -0.0754653886,
        0.112547413,
        -0.0125584323,
        0.00736596156,
        -0.108317278,
        0.0217993762,
        0.125134706,
        -0.114276156,
        -0.0284377877,
        -0.0486891456,
        0.0569534972,
        -0.120695092,
        -0.0165636949
      ]
    },
    {
      "split_indices": [
        6,
        6,
        6,
        6,
        0,
        0,
        6,
        -1,
        0,
        2,
        2,
        1,
        2,
        0,
        4,
        2,
        4,
        0,
        4,
        1,
        6,
        4,
        2,
        1,
        1,
        2,
        6,
        -1,
        2,
        -1,
        -1,
        -1,
        -1,
        -1,
        -1,
        -1,
        -1,
        -1,
        -1,
        -1,
        -1,
        -1,
        -1,
        -1,
        -1,
        -1,
        -1,
        -1,
        -1,
        -1,
        -1,
        -1,
        -1,
        -1,
        -1
      ],
      "split_conditions": [
        62.0099983,
        48.4399986,
        71.7699966,
        26.5100002,
        55.5099983,
        62.4199982,
        92.9000015,
        0.0,
        27.2900009,
        51.2700005,
        17.0400009,
        64.7799988,
        27.5799999,
        54.6699982,
        66.3700027,
        31.0,
        1.26999998,
        38.4900017,
        25.7999992,
        29.8999996,
        49.5900002,
        6.55999994,
        26.2999992,
        39.9900017,
        48.3699989,
        82.7200012,
        91.4899979,
        0.0,
        66.9499969,
        0.0,
        0.0,
        0.0,
        0.0,
        0.0,
        0.0,
        0.0,
        0.0,
        0.0,
        0.0,
        0.0,
        0.0,
        0.0,
        0.0,
        0.0,
        0.0,
        0.0,
        0.0,
        0.0,
        0.0,
        0.0,
        0.0,
        0.0,
        0.0,
        0.0,
        0.0
      ],
      "left_children": [
        1,
        3,
        5,
        7,
        9,
        11,
        13,
        -1,
        15,
        17,
        19,
        21,
        23,
        25,
        27,
        29,
        31,
        33,
        35,
        37,
        39,
        41,
        43,
        45,
        47,
        49,
        51,
        -1,
        53,
        -1,
        -1,
        -1,
        -1,
        -1,
        -1,
        -1,
        -1,
        -1,
        -1,
        -1,
        -1,
        -1,
        -1,
        -1,
        -1,
        -1,
        -1,
        -1,
        -1,
        -1,
        -1,
        -1,
        -1,
        -1,
        -1
      ],
      "right_children": [
        2,
        4,
        6,
        8,
        10,
        12,
        14,
        -1,
        16,
        18,
        20,
        22,
        24,
        26,
        28,
        30,
        32,
        34,
        36,
        38,
        40,
        42,
        44,
        46,
        48,
        50,
        52,
        -1,
        54,
        -1,
        -1,
        -1,
        -1,
        -1,
        -1,
        -1,
        -1,
        -1,
        -1,
        -1,
        -1,
        -1,
        -1,
        -1,
        -1,
        -1,
        -1,
        -1,
        -1,
        -1,
        -1,
        -1,
        -1,
        -1,
        -1
      ],
      "base_weights": [
        0.0,
        0.0,
        0.0,
        0.0,
        0.0,
        0.0,
        0.0,
        0.124222621,
        0.0,
        0.0,
        0.0,
        0.0,
        0.0,
        0.0,
        0.0,
        0.0,
        0.0,
        0.0,
        0.0,
        0.0,
        0.0,
        0.0,
        0.0,
        0.0,
        0.0,
        0.0,
        0.0,
        -0.123886831,
        0.0,
        0.0188888647,
        0.0922399387,
        0.0195641313,
        0.112604007,
        -0.0600545816,
        0.0121544469,
        0.00350430422,
        0.0794050321,
        0.0510485768,
        -0.0318820737,
        0.0106156096,
        0.105164945,
        0.0301380511,
        -0.0641450211,
        0.103424087,
        0.00276525645,
        -0.0958495587,
        -0.00304508535,
        0.0981412604,
        -0.00562853087,
        -0.1135756,
        0.0822101012,
        -0.0662791282,
        0.100236669,
        -0.114741005,
        0.0796549618
      ]
    },
    {
      "split_indices": [
        7,
        7,
        5,
        5,
        5,
        7,
        4,
        4,
        9,
        5,
        2,
        0,
        -1,
        -1,
        -1,
        0,
        -1,
        1,
        2,
        3,
        4,
        3,
        3,
        4,
        2,
        -1,
        -1,
        -1,
        -1,
        -1,
        -1,
        -1,
        -1,
        -1,
        -1,
        -1,
        -1,
        -1,
        -1,
        -1,
        -1,
        -1,
        -1
      ],
      "split_conditions": [
        1.79999995,
        1.39999998,
        32.1199989,
        53.4599991,
        37.2400017,
        2.5,
        0.850000024,
        78.4199982,
        5.0,
        28.6299992,
        26.5699997,
        27.2900009,
        0.0,
        0.0,
        0.0,
        54.6699982,
        0.0,
        81.3399963,
        74.7300034,
        3.76999998,
        12.6800003,
        37.8800011,
        60.0600014,
        29.8999996,
        9.39999962,
        0.0,
        0.0,
        0.0,
        0.0,
        0.0,
        0.0,
        0.0,
        0.0,
        0.0,
        0.0,
        0.0,
        0.0,
        0.0,
        0.0,
        0.0,
        0.0,
        0.0,
        0.0
      ],
      "left_children": [
        1,
        3,
        5,
        7,
        9,
        11,
        13,
        15,
        17,
        19,
        21,
        23,
        -1,
        -1,
        -1,
        25,
        -1,
        27,
        29,
        31,
        33,
        35,
        37,
        39,
        41,
        -1,
        -1,
        -1,
        -1,
        -1,
        -1,
        -1,
        -1,
        -1,
        -1,
        -1,
        -1,
        -1,
        -1,
        -1,
        -1,
        -1,
        -1
      ],
      "right_children": [
        2,
        4,
        6,
        8,
        10,
        12,
        14,
        16,
        18,
        20,
        22,
        24,
        -1,
        -1,
        -1,
        26,
        -1,
        28,
        30,
        32,
        34,
        36,
        38,
        40,
        42,
        -1,
        -1,
        -1,
        -1,
        -1,
        -1,
        -1,
        -1,
        -1,
        -1,
        -1,
        -1,
        -1,
        -1,
        -1,
        -1,
        -1,
        -1
      ],
      "base_weights": [
        0.0,
        0.0,
        0.0,
        0.0,
        0.0,
        0.0,
        0.0,
        0.0,
        0.0,
        0.0,
        0.0,
        0.0,
        0.119175687,
        0.0364048146,
        0.117550664,
        0.0,
        -0.0179655384,
        0.0,
        0.0,
        0.0,
        0.0,
        0.0,
        0.0,
        0.0,
        0.0,
        -0.117744699,
        -0.100453787,
        -0.103995472,
        0.0211827196,
        -0.0410409681,
        0.0811083317,
        0.0387070067,
        -0.0785553232,
        0.0272845197,
        -0.0329098254,
        0.032863427,
        -0.123952411,
        0.0658958405,
        -0.0287005529,
        0.0603770427,
        -0.0217066072,
        0.0195278972,
        0.0997012407
      ]
    },
    {
      "split_indices": [
        6,
        7,
        6,
        0,
        6,
        0,
        6,
        2,
        1,
        -1,
        0,
        -1,
        2,
        0,
        4,
        1,
        9,
        -1,
        9,
        1,
        2,
        1,
        0,
        4,
        2,
        -1,
        2,
        -1,
        -1,
        -1,
        -1,
        -1,
        -1,
        -1,
        -1,
        -1,
        -1,
        -1,
        -1,
        -1,
        -1,
        -1,
        -1,
        -1,
        -1,
        -1,
        -1
      ],
      "split_conditions": [
        62.0099983,
        1.79999995,
        73.9899979,
        52.7200012,
        29.0300007,
        16.6299992,
        92.9000015,
        50.2700005,
        11.4399996,
        0.0,
        27.2900009,
        0.0,
        23.4099998,
        44.2200012,
        66.3700027,
        25.9200001,
        4.0,
        0.0,
        1.0,
        15.5699997,
        9.39999962,
        66.0299988,
        25.9699993,
        65.0800018,
        31.0,
        0.0,
        66.9499969,
        0.0,
        0.0,
        0.0,
        0.0,
        0.0,
        0.0,
        0.0,
        0.0,
        0.0,
        0.0,
        0.0,
        0.0,
        0.0,
        0.0,
        0.0,
        0.0,
        0.0,
        0.0,
        0.0,
        0.0
      ],
      "left_children": [
        1,
        3,
        5,
        7,
        9,
        11,
        13,
        15,
        17,
        -1,
        19,
        -1,
        21,
        23,
        25,
        27,
        29,
        -1,
        31,
        33,
        35,
        37,
        39,
        41,
        43,
        -1,
        45,
        -1,
        -1,
        -1,
        -1,
        -1,
        -1,
        -1,
        -1,
        -1,
        -1,
        -1,
        -1,
        -1,
        -1,
        -1,
        -1,
        -1,
        -1,
        -1,
        -1
      ],
      "right_children": [
        2,
        4,
        6,
        8,
        10,
        12,
        14,
        16,
        18,
        -1,
        20,
        -1,
        22,
        24,
        26,
        28,
        30,
        -1,
        32,
        34,
        36,
        38,
        40,
        42,
        44,
        -1,
        46,
        -1,
        -1,
        -1,
        -1,
        -1,
        -1,
        -1,
        -1,
        -1,
        -1,
        -1,
        -1,
        -1,
        -1,
        -1,
        -1,
        -1,
        -1,
        -1,
        -1
      ],
      "base_weights": [
        0.0,
        0.0,
        0.0,
        0.0,
        0.0,
        0.0,
        0.0,
        0.0,
        0.0,
        0.113044843,
        0.0,
        -0.114898466,
        0.0,
        0.0,
        0.0,
        0.0,
        0.0,
        -0.041753795,
        0.0,
        0.0,
        0.0,
        0.0,
        0.0,
        0.0,
        0.0,
        -0.114818104,
        0.0,
        -0.0758235902,
        -0.0108584594,
        0.065296188,
        -0.00366150611,
        -0.0153971966,
        0.0943123922,
        -0.0289079137,
        0.0738544986,
        0.0379683785,
        0.10271617,
        -0.0959030315,
        0.0718766749,
        0.071701102,
        -0.0125129195,
        -0.112498403,
        -0.0235245191,
        -0.11341171,
        -0.0176108945,
        -0.107278399,
        0.0685699582
      ]
    },
    {
      "split_indices": [
        7,
        5,
        7,
        5,
        8,
        5,
        5,
        3,
        3,
        3,
        1,
        2,
        0,
        7,
        1,
        -1,
        0,
        2,
        3,
        -1,
        -1,
        2,
        1,
        1,
        2,
        3,
        9,
        3,
        -1,
        -1,
        -1,
        -1,
        -1,
        -1,
        -1,
        -1,
        -1,
        -1,
        -1,
        -1,
        -1,
        -1,
        -1,
        -1,
        -1,
        -1,
        -1,
        -1,
        -1,
        -1,
        -1
      ],
      "split_conditions": [
        1.39999998,
        50.8499985,
        1.79999995,
        40.0800018,
        5.0,
        37.2400017,
        29.3500004,
        72.3399963,
        30.5100002,
        17.7299995,
        54.2900009,
        20.0799999,
        59.2799988,
        2.5,
        2.6400001,
        0.0,
        21.4200001,
        44.5299988,
        68.8399963,
        0.0,
        0.0,
        78.25,
        56.7000008,
        66.0299988,
        29.5200005,
        59.6300011,
        2.0,
        42.7999992,
        0.0,
        0.0,
        0.0,
        0.0,
        0.0,
        0.0,
        0.0,
        0.0,
        0.0,
        0.0,
        0.0,
        0.0,
        0.0,
        0.0,
        0.0,
        0.0,
        0.0,
        0.0,
        0.0,
        0.0,
        0.0,
        0.0,
        0.0
      ],
      "left_children": [
        1,
        3,
        5,
        7,
        9,
        11,
        13,
        15,
        17,
        19,
        21,
        23,
        25,
        27,
        29,
        -1,
        31,
        33,
        35,
        -1,
        -1,
        37,
        39,
        41,
        43,
        45,
        47,
        49,
        -1,
        -1,
        -1,
        -1,
        -1,
        -1,
        -1,
        -1,
        -1,
        -1,
        -1,
        -1,
        -1,
        -1,
        -1,
        -1,
        -1,
        -1,
        -1,
        -1,
        -1,
        -1,
        -1
      ],
      "right_children": [
        2,
        4,
        6,
        8,
        10,
        12,
        14,
        16,
        18,
        20,
        22,
        24,
        26,
        28,
        30,
        -1,
        32,
        34,
        36,
        -1,
        -1,
        38,
        40,
        42,
        44,
        46,
        48,
        50,
        -1,
        -1,
        -1,
        -1,
        -1,
        -1,
        -1,
        -1,
        -1,
        -1,
        -1,
        -1,
        -1,
        -1,
        -1,
        -1,
        -1,
        -1,
        -1,
        -1,
        -1,
        -1,
        -1
      ],
      "base_weights": [
        0.0,
        0.0,
        0.0,
        0.0,
        0.0,
        0.0,
        0.0,
        0.0,
        0.0,
        0.0,
        0.0,
        0.0,
        0.0,
        0.0,
        0.0,
        -0.108950906,
        0.0,
        0.0,
        0.0,
        0.0856597871,
        -0.106743485,
        0.0,
        0.0,
        0.0,
        0.0,
        0.0,
        0.0,
        0.0,
        0.109427907,
        0.0399075337,
        0.105349317,
        0.0261281468,
        -0.0835397691,
        -0.104815967,
        -0.0279194191,
        -0.10579998,
        -0.0515345261,
        -0.0936320648,
        0.0524040647,
        0.0995676517,
        -0.00686711166,
        -0.0896930173,
        0.0444825292,
        0.0212708991,
        -0.0343693569,
        0.032616891,
        -0.0914892107,
        0.0188900996,
        0.0933537856,
        0.0594505854,
        -0.0817529485
      ]
    },
    {
      "split_indices": [
        6,
        6,
        6,
        6,
        0,
        5,
        6,
        6,
        5,
        2,
        5,
        4,
        0,
        5,
        4,
        -1,
        5,
        5,
        4,
        0,
        4,
        -1,
        1,
        2,
        -1,
        4,
        2,
        2,
        6,
        -1,
        2,
        -1,
        -1,
        -1,
        -1,
        -1,
        -1,
        -1,
        -1,
        -1,
        -1,
        -1,
        -1,
        -1,
        -1,
        -1,
        -1,
        -1,
        -1,
        -1,
        -1,
        -1,
        -1,
        -1,
        -1
      ],
      "split_conditions": [
        63.4700012,
        48.4399986,
        71.7699966,
        41.0099983,
        47.0099983,
        30.6900005,
        92.9000015,
        23.6900005,
        32.6100006,
        50.2700005,
        27.4599991,
        36.8300018,
        62.4199982,
        43.1300011,
        66.3700027,
        0.0,
        32.1199989,
        24.7299995,
        4.17000008,
        17.7999992,
        27.7199993,
        0.0,
        14.8400002,
        49.6599998,
        0.0,
        6.55999994,
        26.5699997,
        38.5699997,
        78.7600021,
        0.0,
        66.9499969,
        0.0,
        0.0,
        0.0,
        0.0,
        0.0,
        0.0,
        0.0,
        0.0,
        0.0,
        0.0,
        0.0,
        0.0,
        0.0,
        0.0,
        0.0,
        0.0,
        0.0,
        0.0,
        0.0,
        0.0,
        0.0,
        0.0,
        0.0,
        0.0
      ],
      "left_children": [
        1,
        3,
        5,
        7,
        9,
        11,
        13,
        15,
        17,
        19,
        21,
        23,
        25,
        27,
        29,
        -1,
        31,
        33,
        35,
        37,
        39,
        -1,
        41,
        43,
        -1,
        45,
        47,
        49,
        51,
        -1,
        53,
        -1,
        -1,
        -1,
        -1,
        -1,
        -1,
        -1,
        -1,
        -1,
        -1,
        -1,
        -1,
        -1,
        -1,
        -1,
        -1,
        -1,
        -1,
        -1,
        -1,
        -1,
        -1,
        -1,
        -1
      ],
      "right_children": [
        2,
        4,
        6,
        8,
        10,
        12,
        14,
        16,
        18,
        20,
        22,
        24,
        26,
        28,
        30,
        -1,
        32,
        34,
        36,
        38,
        40,
        -1,
        42,
        44,
        -1,
        46,
        48,
        50,
        52,
        -1,
        54,
        -1,
        -1,
        -1,
        -1,
        -1,
        -1,
        -1,
        -1,
        -1,
        -1,
        -1,
        -1,
        -1,
        -1,
        -1,
        -1,
        -1,
        -1,
        -1,
        -1,
        -1,
        -1,
        -1,
        -1
      ],
      "base_weights": [
        0.0,
        0.0,
        0.0,
        0.0,
        0.0,
        0.0,
        0.0,
        0.0,
        0.0,
        0.0,
        0.0,
        0.0,
        0.0,
        0.0,
        0.0,
        0.108159453,
        0.0,
        0.0,
        0.0,
        0.0,
        0.0,
        -0.0839969218,
        0.0,
        0.0,
        0.0336915851,
        0.0,
        0.0,
        0.0,
        0.0,
        -0.107766777,
        0.0,
        0.0680739805,
        0.10345982,
        -0.0636530444,
        0.0306151472,
        0.0223062076,
        0.0949353874,
        -0.102132507,
        -0.0297578257,
        -0.0415967256,
        0.0657132119,
        -0.0336194001,
        0.067235522,
        -0.109911427,
        -0.00790845696,
        0.0765918791,
        -0.0265644696,
        -0.0433092266,
        0.0859859139,
        -0.108772859,
        -0.0682967827,
        -0.0970183462,
        0.0158716924,
        -0.100100704,
        0.0640861765
      ]
    },
    {
      "split_indices": [
        6,
        7,
        6,
        0,
        5,
        5,
        5,
        6,
        9,
        6,
        6,
        2,
        0,
        6,
        6,
        2,
        5,
        5,
        3,
        5,
        3,
        -1,
        5,
        -1,
        -1,
        2,
        2,
        5,
        -1,
        9,
        -1,
        -1,
        -1,
        -1,
        -1,
        -1,
        -1,
        -1,
        -1,
        -1,
        -1,
        -1,
        -1,
        -1,
        -1,
        -1,
        -1,
        -1,
        -1,
        -1,
        -1,
        -1,
        -1
      ],
      "split_conditions": [
        62.0099983,
        1.79999995,
        72.3899994,
        55.5099983,
        29.2199993,
        30.6000004,
        50.8499985,
        51.6899986,
        1.0,
        24.3199997,
        45.4300003,
        52.2799988,
        62.4199982,
        92.9000015,
        112.800003,
        36.6199989,
        32.1599998,
        43.0299988,
        58.1899986,
        17.1499996,
        44.3300018,
        0.0,
        36.7799988,
        0.0,
        0.0,
        44.5299988,
        29.3700008,
        40.3300018,
        0.0,
        5.0,
        0.0,
        0.0,
        0.0,
        0.0,
        0.0,
        0.0,
        0.0,
        0.0,
        0.0,
        0.0,
        0.0,
        0.0,
        0.0,
        0.0,
        0.0,
        0.0,
        0.0,
        0.0,
        0.0,
        0.0,
        0.0,
        0.0,
        0.0
      ],
      "left_children": [
        1,
        3,
        5,
        7,
        9,
        11,
        13,
        15,
        17,
        19,
        21,
        23,
        25,
        27,
        29,
        31,
        33,
        35,
        37,
        39,
        41,
        -1,
        43,
        -1,
        -1,
        45,
        47,
        49,
        -1,
        51,
        -1,
        -1,
        -1,
        -1,
        -1,
        -1,
        -1,
        -1,
        -1,
        -1,
        -1,
        -1,
        -1,
        -1,
        -1,
        -1,
        -1,
        -1,
        -1,
        -1,
        -1,
        -1,
        -1
      ],
      "right_children": [
        2,
        4,
        6,
        8,
        10,
        12,
        14,
        16,
        18,
        20,
        22,
        24,
        26,
        28,
        30,
        32,
        34,
        36,
        38,
        40,
        42,
        -1,
        44,
        -1,
        -1,
        46,
        48,
        50,
        -1,
        52,
        -1,
        -1,
        -1,
        -1,
        -1,
        -1,
        -1,
        -1,
        -1,
        -1,
        -1,
        -1,
        -1,
        -1,
        -1,
        -1,
        -1,
        -1,
        -1,
        -1,
        -1,
        -1,
        -1
      ],
      "base_weights": [
        0.0,
        0.0,
        0.0,
        0.0,
        0.0,
        0.0,
        0.0,
        0.0,
        0.0,
        0.0,
        0.0,
        0.0,
        0.0,
        0.0,
        0.0,
        0.0,
        0.0,
        0.0,
        0.0,
        0.0,
        0.0,
        0.100581497,
        0.0,
        -0.11060971,
        0.00428248337,
        0.0,
        0.0,
        0.0,
        -0.104736432,
        0.0,
        -0.0983823538,
        -0.00915076584,
        0.0631516129,
        -0.0561857596,
        0.0102693047,
        -0.100756727,
        0.0718075112,
        0.086153686,
        -0.0295454133,
        0.0324707292,
        0.104448557,
        0.0548646301,
        -0.103410795,
        0.00889135897,
        0.0991300195,
        0.01145312,
        -0.0770062581,
        -0.0452498421,
        0.0819212645,
        -0.0975793973,
        -0.0421697795,
        -0.0327550508,
        0.065658547
      ]
    },
    {
      "split_indices": [
        7,
        5,
        7,
        3,
        3,
        5,
        5,
        -1,
        2,
        3,
        3,
        2,
        3,
        4,
        4,
        -1,
        -1,
        1,
        4,
        4,
        1,
        3,
        2,
        2,
        9,
        1,
        2,
        -1,
        5,
        -1,
        -1,
        -1,
        -1,
        -1,
        -1,
        -1,
        -1,
        -1,
        -1,
        -1,
        -1,
        -1,
        -1,
        -1,
        -1,
        -1,
        -1,
        -1,
        -1,
        -1,
        -1
      ],
      "split_conditions": [
        1.39999998,
        40.0800018,
        1.79999995,
        72.3399963,
        30.5100002,
        37.2400017,
        25.2700005,
        0.0,
        34.7099991,
        29.9500008,
        66.7399979,
        21.6800003,
        60.0600014,
        27.5599995,
        0.850000024,
        0.0,
        0.0,
        22.4200001,
        18.1499996,
        3.32999992,
        54.9000015,
        36.7200012,
        28.2000008,
        27.5799999,
        3.0,
        11.4399996,
        26.7700005,
        0.0,
        34.1899986,
        0.0,
        0.0,
        0.0,
        0.0,
        0.0,
        0.0,
        0.0,
        0.0,
        0.0,
        0.0,
        0.0,
        0.0,
        0.0,
        0.0,
        0.0,
        0.0,
        0.0,
        0.0,
        0.0,
        0.0,
        0.0,
        0.0
      ],
      "left_children": [
        1,
        3,
        5,
        7,
        9,
        11,
        13,
        -1,
        15,
        17,
        19,
        21,
        23,
        25,
        27,
        -1,
        -1,
        29,
        31,
        33,
        35,
        37,
        39,
        41,
        43,
        45,
        47,
        -1,
        49,
        -1,
        -1,
        -1,
        -1,
        -1,
        -1,
        -1,
        -1,
        -1,
        -1,
        -1,
        -1,
        -1,
        -1,
        -1,
        -1,
        -1,
        -1,
        -1,
        -1,
        -1,
        -1
      ],
      "right_children": [
        2,
        4,
        6,
        8,
        10,
        12,
        14,
        -1,
        16,
        18,
        20,
        22,
        24,
        26,
        28,
        -1,
        -1,
        30,
        32,
        34,
        36,
        38,
        40,
        42,
        44,
        46,
        48,
        -1,
        50,
        -1,
        -1,
        -1,
        -1,
        -1,
        -1,
        -1,
        -1,
        -1,
        -1,
        -1,
        -1,
        -1,
        -1,
        -1,
        -1,
        -1,
        -1,
        -1,
        -1,
        -1,
        -1
      ],
      "base_weights": [
        0.0,
        0.0,
        0.0,
        0.0,
        0.0,
        0.0,
        0.0,
        -0.101056375,
        0.0,
        0.0,
        0.0,
        0.0,
        0.0,
        0.0,
        0.0,
        -0.0692966804,
        0.031564787,
        0.0,
        0.0,
        0.0,
        0.0,
        0.0,
        0.0,
        0.0,
        0.0,
        0.0,
        0.0,
        -0.00626595644,
        0.0,
        0.0243681502,
        -0.0690132007,
        0.0954887569,
        0.0122910459,
        0.0211896207,
        -0.0936253145,
        -0.079708524,
        0.0430378765,
        -0.0970097035,
        -0.0153405992,
        0.0456975885,
        -0.0333990008,
        -0.0222001094,
        0.0602873489,
        -0.0946486071,
        0.00511755748,
        0.0120289363,
        0.0835211799,
        -0.0940822661,
        0.0624258891,
        0.0848360509,
        0.100377463
      ]
    },
    {
      "split_indices": [
        6,
        6,
        6,
        6,
        0,
        5,
        5,
        5,
        0,
        1,
        5,
        4,
        5,
        6,
        6,
        6,
        1,
        5,
        1,
        0,
        0,
        1,
        0,
        4,
        -1,
        9,
        0,
        5,
        -1,
        4,
        -1,
        -1,
        -1,
        -1,
        -1,
        -1,
        -1,
        -1,
        -1,
        -1,
        -1,
        -1,
        -1,
        -1,
        -1,
        -1,
        -1,
        -1,
        -1,
        -1,
        -1,
        -1,
        -1,
        -1,
        -1,
        -1,
        -1
      ],
      "split_conditions": [
        62.0099983,
        48.4399986,
        73.9899979,
        41.0099983,
        55.5099983,
        30.6000004,
        50.8499985,
        25.2700005,
        26.9400005,
        12.9399996,
        41.1399994,
        36.8300018,
        30.9799995,
        87.4899979,
        112.800003,
        24.3199997,
        4.73999977,
        26.6800003,
        21.6200008,
        6.42999983,
        24.8199997,
        35.4700012,
        61.5900002,
        4.65999985,
        0.0,
        3.0,
        62.4199982,
        40.3300018,
        0.0,
        44.5499992,
        0.0,
        0.0,
        0.0,
        0.0,
        0.0,
        0.0,
        0.0,
        0.0,
        0.0,
        0.0,
        0.0,
        0.0,
        0.0,
        0.0,
        0.0,
        0.0,
        0.0,
        0.0,
        0.0,
        0.0,
        0.0,
        0.0,
        0.0,
        0.0,
        0.0,
        0.0,
        0.0
      ],
      "left_children": [
        1,
        3,
        5,
        7,
        9,
        11,
        13,
        15,
        17,
        19,
        21,
        23,
        25,
        27,
        29,
        31,
        33,
        35,
        37,
        39,
        41,
        43,
        45,
        47,
        -1,
        49,
        51,
        53,
        -1,
        55,
        -1,
        -1,
        -1,
        -1,
        -1,
        -1,
        -1,
        -1,
        -1,
        -1,
        -1,
        -1,
        -1,
        -1,
        -1,
        -1,
        -1,
        -1,
        -1,
        -1,
        -1,
        -1,
        -1,
        -1,
        -1,
        -1,
        -1
      ],
      "right_children": [
        2,
        4,
        6,
        8,
        10,
        12,
        14,
        16,
        18,
        20,
        22,
        24,
        26,
        28,
        30,
        32,
        34,
        36,
        38,
        40,
        42,
        44,
        46,
        48,
        -1,
        50,
        52,
        54,
        -1,
        56,
        -1,
        -1,
        -1,
        -1,
        -1,
        -1,
        -1,
        -1,
        -1,
        -1,
        -1,
        -1,
        -1,
        -1,
        -1,
        -1,
        -1,
        -1,
        -1,
        -1,
        -1,
        -1,
        -1,
        -1,
        -1,
        -1,
        -1
      ],
      "base_weights": [
        0.0,
        0.0,
        0.0,
        0.0,
        0.0,
        0.0,
        0.0,
        0.0,
        0.0,
        0.0,
        0.0,
        0.0,
        0.0,
        0.0,
        0.0,
        0.0,
        0.0,
        0.0,
        0.0,
        0.0,
        0.0,
        0.0,
        0.0,
        0.0,
        -0.00203799526,
        0.0,
        0.0,
        0.0,
        -0.0977634713,
        0.0,
        -0.0919825211,
        0.0935566947,
        0.0434390157,
        0.0444575213,
        0.0959021002,
        -0.103718832,
        0.0436371565,
        0.0369431004,
        0.0888647884,
        0.0110075064,
        -0.117453687,
        -0.0423602536,
        0.0205648802,
        0.0597408228,
        -0.0561186075,
        0.0274390262,
        0.103629112,
        -0.00103175698,
        -0.103654049,
        0.135040179,
        0.0135782575,
        -0.0383165851,
        0.0357026272,
        -0.0955069438,
        -0.0132631371,
        -0.0478473045,
        0.0814970881
      ]
    },
    {
      "split_indices": [
        6,
        6,
        6,
        6,
        0,
        0,
        6,
        -1,
        0,
        2,
        9,
        -1,
        0,
        1,
        4,
        2,
        1,
        1,
        1,
        4,
        1,
        2,
        9,
        8,
        0,
        -1,
        2,
        -1,
        -1,
        -1,
        -1,
        -1,
        -1,
        -1,
        -1,
        -1,
        -1,
        -1,
        -1,
        -1,
        -1,
        -1,
        -1,
        -1,
        -1,
        -1,
        -1,
        -1,
        -1
      ],
      "split_conditions": [
        62.0099983,
        48.4399986,
        73.9899979,
        25.5,
        55.5099983,
        18.0799999,
        89.2799988,
        0.0,
        38.2999992,
        51.5200005,
        1.0,
        0.0,
        21.6800003,
        47.4000015,
        69.1100006,
        31.0,
        5.30999994,
        25.9200001,
        37.0900002,
        35.7099991,
        10.25,
        26.2999992,
        7.0,
        1.0,
        48.5600014,
        0.0,
        65.4300003,
        0.0,
        0.0,
        0.0,
        0.0,
        0.0,
        0.0,
        0.0,
        0.0,
        0.0,
        0.0,
        0.0,
        0.0,
        0.0,
        0.0,
        0.0,
        0.0,
        0.0,
        0.0,
        0.0,
        0.0,
        0.0,
        0.0
      ],
      "left_children": [
        1,
        3,
        5,
        7,
        9,
        11,
        13,
        -1,
        15,
        17,
        19,
        -1,
        21,
        23,
        25,
        27,
        29,
        31,
        33,
        35,
        37,
        39,
        41,
        43,
        45,
        -1,
        47,
        -1,
        -1,
        -1,
        -1,
        -1,
        -1,
        -1,
        -1,
        -1,
        -1,
        -1,
        -1,
        -1,
        -1,
        -1,
        -1,
        -1,
        -1,
        -1,
        -1,
        -1,
        -1
      ],
      "right_children": [
        2,
        4,
        6,
        8,
        10,
        12,
        14,
        -1,
        16,
        18,
        20,
        -1,
        22,
        24,
        26,
        28,
        30,
        32,
        34,
        36,
        38,
        40,
        42,
        44,
        46,
        -1,
        48,
        -1,
        -1,
        -1,
        -1,
        -1,
        -1,
        -1,
        -1,
        -1,
        -1,
        -1,
        -1,
        -1,
        -1,
        -1,
        -1,
        -1,
        -1,
        -1,
        -1,
        -1,
        -1
      ],
      "base_weights": [
        0.0,
        0.0,
        0.0,
        0.0,
        0.0,
        0.0,
        0.0,
        0.0981172472,
        0.0,
        0.0,
        0.0,
        -0.10229551,
        0.0,
        0.0,
        0.0,
        0.0,
        0.0,
        0.0,
        0.0,
        0.0,
        0.0,
        0.0,
        0.0,
        0.0,
        0.0,
        -0.0963895693,
        0.0,
        0.00803208258,
        0.07030873,
        0.00235081627,
        0.0898607522,
        -0.082540825,
        -0.0180621333,
        -0.00816492643,
        0.0881841481,
        -0.0983343944,
        0.0639016628,
        -0.0239393227,
        0.0796163604,
        -0.00552423997,
        0.116652183,
        -0.00982112996,
        -0.0868138745,
        -0.0349663422,
        -0.0938481316,
        -0.076690495,
        0.0449184701,
        -0.0894026086,
        0.0734030604
      ]
    },
    {
      "split_indices": [
        6,
        6,
        5,
        7,
        5,
        6,
        6,
        5,
        5,
        2,
        6,
        5,
        -1,
        0,
        5,
        0,
        4,
        -1,
        -1,
        1,
        0,
        2,
        -1,
        2,
        5,
        2,
        5,
        -1,
        5,
        -1,
        -1,
        -1,
        -1,
        -1,
        -1,
        -1,
        -1,
        -1,
        -1,
        -1,
        -1,
        -1,
        -1,
        -1,
        -1,
        -1,
        -1,
        -1,
        -1
      ],
      "split_conditions": [
        71.7699966,
        49.0299988,
        46.25,
        2.5,
        46.4099998,
        89.2799988,
        97.2300034,
        34.1899986,
        17.1499996,
        20.0799999,
        68.5800018,
        40.0800018,
        0.0,
        53.5800018,
        46.4099998,
        27.2900009,
        2.91000009,
        0.0,
        0.0,
        55.5600014,
        49.8899994,
        33.1899986,
        0.0,
        67.4899979,
        41.1399994,
        81.4300003,
        46.7999992,
        0.0,
        58.0800018,
        0.0,
        0.0,
        0.0,
        0.0,
        0.0,
        0.0,
        0.0,
        0.0,
        0.0,
        0.0,
        0.0,
        0.0,
        0.0,
        0.0,
        0.0,
        0.0,
        0.0,
        0.0,
        0.0,
        0.0
      ],
      "left_children": [
        1,
        3,
        5,
        7,
        9,
        11,
        13,
        15,
        17,
        19,
        21,
        23,
        -1,
        25,
        27,
        29,
        31,
        -1,
        -1,
        33,
        35,
        37,
        -1,
        39,
        41,
        43,
        45,
        -1,
        47,
        -1,
        -1,
        -1,
        -1,
        -1,
        -1,
        -1,
        -1,
        -1,
        -1,
        -1,
        -1,
        -1,
        -1,
        -1,
        -1,
        -1,
        -1,
        -1,
        -1
      ],
      "right_children": [
        2,
        4,
        6,
        8,
        10,
        12,
        14,
        16,
        18,
        20,
        22,
        24,
        -1,
        26,
        28,
        30,
        32,
        -1,
        -1,
        34,
        36,
        38,
        -1,
        40,
        42,
        44,
        46,
        -1,
        48,
        -1,
        -1,
        -1,
        -1,
        -1,
        -1,
        -1,
        -1,
        -1,
        -1,
        -1,
        -1,
        -1,
        -1,
        -1,
        -1,
        -1,
        -1,
        -1,
        -1
      ],
      "base_weights": [
        0.0,
        0.0,
        0.0,
        0.0,
        0.0,
        0.0,
        0.0,
        0.0,
        0.0,
        0.0,
        0.0,
        0.0,
        -0.0954242721,
        0.0,
        0.0,
        0.0,
        0.0,
        0.0234338753,
        0.0971332267,
        0.0,
        0.0,
        0.0,
        -0.0237397049,
        0.0,
        0.0,
        0.0,
        0.0,
        0.037771605,
        0.0,
        0.00863397587,
        0.0674859285,
        0.0196921863,
        0.0899768621,
        -0.0737648904,
        0.0455742553,
        -0.0110377511,
        0.0442123003,
        0.02788979,
        0.098932758,
        -0.0974677354,
        -0.0329919383,
        0.0472424589,
        -0.0490064435,
        -0.090012148,
        0.0716217309,
        0.126139894,
        0.00848051347,
        -0.094068341,
        -0.0289726127
      ]
    },
    {
      "split_indices": [
        7,
        7,
        5,
        5,
        5,
        7,
        5,
        3,
        3,
        1,
        1,
        3,
        5,
        7,
        -1,
        4,
        9,
        1,
        3,
        4,
        0,
        8,
        -1,
        0,
        5,
        -1,
        -1,
        3,
        -1,
        -1,
        -1,
        -1,
        -1,
        -1,
        -1,
        -1,
        -1,
        -1,
        -1,
        -1,
        -1,
        -1,
        -1,
        -1,
        -1,
        -1,
        -1,
        -1,
        -1
      ],
      "split_conditions": [
        1.79999995,
        1.39999998,
        29.3500004,
        43.5999985,
        45.0900002,
        2.5,
        35.5900002,
        72.3399963,
        32.2700005,
        12.2600002,
        65.4300003,
        46.2000008,
        17.1499996,
        2.5,
        0.0,
        1.26999998,
        7.0,
        39.6800003,
        66.7399979,
        50.8400002,
        19.0200005,
        5.0,
        0.0,
        7.03999996,
        24.5400009,
        0.0,
        0.0,
        33.4599991,
        0.0,
        0.0,
        0.0,
        0.0,
        0.0,
        0.0,
        0.0,
        0.0,
        0.0,
        0.0,
        0.0,
        0.0,
        0.0,
        0.0,
        0.0,
        0.0,
        0.0,
        0.0,
        0.0,
        0.0,
        0.0
      ],
      "left_children": [
        1,
        3,
        5,
        7,
        9,
        11,
        13,
        15,
        17,
        19,
        21,
        23,
        25,
        27,
        -1,
        29,
        31,
        33,
        35,
        37,
        39,
        41,
        -1,
        43,
        45,
        -1,
        -1,
        47,
        -1,
        -1,
        -1,
        -1,
        -1,
        -1,
        -1,
        -1,
        -1,
        -1,
        -1,
        -1,
        -1,
        -1,
        -1,
        -1,
        -1,
        -1,
        -1,
        -1,
        -1
      ],
      "right_children": [
        2,
        4,
        6,
        8,
        10,
        12,
        14,
        16,
        18,
        20,
        22,
        24,
        26,
        28,
        -1,
        30,
        32,
        34,
        36,
        38,
        40,
        42,
        -1,
        44,
        46,
        -1,
        -1,
        48,
        -1,
        -1,
        -1,
        -1,
        -1,
        -1,
        -1,
        -1,
        -1,
        -1,
        -1,
        -1,
        -1,
        -1,
        -1,
        -1,
        -1,
        -1,
        -1,
        -1,
        -1
      ],
      "base_weights": [
        0.0,
        0.0,
        0.0,
        0.0,
        0.0,
        0.0,
        0.0,
        0.0,
        0.0,
        0.0,
        0.0,
        0.0,
        0.0,
        0.0,
        0.093391262,
        0.0,
        0.0,
        0.0,
        0.0,
        0.0,
        0.0,
        0.0,
        -0.0110841738,
        0.0,
        0.0,
        0.0329266153,
        0.0938823596,
        0.0,
        0.0936885923,
        -0.0172875356,
        -0.0900361687,
        -0.0722260699,
        0.0659871995,
        0.0551358908,
        -0.0321006477,
        -0.0794458091,
        -0.0166026186,
        -0.105953962,
        0.0440120585,
        -0.056258779,
        0.00771019282,
        0.104249865,
        0.0411658175,
        -0.0488576256,
        0.0474337749,
        -0.0111524602,
        -0.12047305,
        0.0818526074,
        0.0443420224
      ]
    },
    {
      "split_indices": [
        6,
        6,
        6,
        1,
        5,
        5,
        4,
        0,
        0,
        0,
        2,
        6,
        1,
        -1,
        2,
        -1,
        -1,
        6,
        0,
        2,
        0,
        0,
        5,
        5,
        6,
        0,
        1,
        -1,
        6,
        -1,
        -1,
        -1,
        -1,
        -1,
        -1,
        -1,
        -1,
        -1,
        -1,
        -1,
        -1,
        -1,
        -1,
        -1,
        -1,
        -1,
        -1,
        -1,
        -1,
        -1,
        -1
      ],
      "split_conditions": [
        62.0099983,
        41.0099983,
        92.9000015,
        2.6400001,
        32.1599998,
        39.6699982,
        66.3700027,
        42.5499992,
        7.55999994,
        26.9400005,
        25.4200001,
        73.9899979,
        65.4300003,
        0.0,
        66.9499969,
        0.0,
        0.0,
        25.5,
        34.9399986,
        50.2700005,
        43.4700012,
        54.2999992,
        37.2400017,
        30.6000004,
        91.9800034,
        58.6800003,
        83.4700012,
        0.0,
        112.800003,
        0.0,
        0.0,
        0.0,
        0.0,
        0.0,
        0.0,
        0.0,
        0.0,
        0.0,
        0.0,
        0.0,
        0.0,
        0.0,
        0.0,
        0.0,
        0.0,
        0.0,
        0.0,
        0.0,
        0.0,
        0.0,
        0.0
      ],
      "left_children": [
        1,
        3,
        5,
        7,
        9,
        11,
        13,
        15,
        17,
        19,
        21,
        23,
        25,
        -1,
        27,
        -1,
        -1,
        29,
        31,
        33,
        35,
        37,
        39,
        41,
        43,
        45,
        47,
        -1,
        49,
        -1,
        -1,
        -1,
        -1,
        -1,
        -1,
        -1,
        -1,
        -1,
        -1,
        -1,
        -1,
        -1,
        -1,
        -1,
        -1,
        -1,
        -1,
        -1,
        -1,
        -1,
        -1
      ],
      "right_children": [
        2,
        4,
        6,
        8,
        10,
        12,
        14,
        16,
        18,
        20,
        22,
        24,
        26,
        -1,
        28,
        -1,
        -1,
        30,
        32,
        34,
        36,
        38,
        40,
        42,
        44,
        46,
        48,
        -1,
        50,
        -1,
        -1,
        -1,
        -1,
        -1,
        -1,
        -1,
        -1,
        -1,
        -1,
        -1,
        -1,
        -1,
        -1,
        -1,
        -1,
        -1,
        -1,
        -1,
        -1,
        -1,
        -1
      ],
      "base_weights": [
        0.0,
        0.0,
        0.0,
        0.0,
        0.0,
        0.0,
        0.0,
        0.0,
        0.0,
        0.0,
        0.0,
        0.0,
        0.0,
        -0.0923325345,
        0.0,
        -0.0792741179,
        0.0550057031,
        0.0,
        0.0,
        0.0,
        0.0,
        0.0,
        0.0,
        0.0,
        0.0,
        0.0,
        0.0,
        -0.0843660608,
        0.0,
        0.0790516734,
        -0.033170294,
        0.0769570693,
        0.0925815105,
        -0.084597908,
        0.026748294,
        0.0350137018,
        -0.059850309,
        -0.047563415,
        0.0556706786,
        0.024526298,
        0.069989942,
        -0.0688631535,
        -0.0068703955,
        -0.0888580903,
        0.00636890018,
        -0.0129155628,
        0.0348285474,
        -0.096825704,
        0.0152606089,
        0.0856582746,
        0.0178887527
      ]
    },
    {
      "split_indices": [
        7,
        5,
        7,
        3,
        5,
        2,
        5,
        -1,
        5,
        3,
        8,
        2,
        0,
        7,
        4,
        -1,
        -1,
        3,
        3,
        -1,
        -1,
        3,
        0,
        2,
        1,
        0,
        5,
        -1,
        3,
        -1,
        -1,
        -1,
        -1,
        -1,
        -1,
        -1,
        -1,
        -1,
        -1,
        -1,
        -1,
        -1,
        -1,
        -1,
        -1,
        -1,
        -1
      ],
      "split_conditions": [
        1.39999998,
        40.3300018,
        1.79999995,
        72.3399963,
        58.0800018,
        20.5900002,
        32.0600014,
        0.0,
        34.7999992,
        71.5599976,
        7.0,
        12.8299999,
        50.2700005,
        2.5,
        1.65999997,
        0.0,
        0.0,
        30.5100002,
        75.9800034,
        0.0,
        0.0,
        34.5,
        73.2900009,
        52.2799988,
        31.3400002,
        27.2900009,
        17.1499996,
        0.0,
        74.6500015,
        0.0,
        0.0,
        0.0,
        0.0,
        0.0,
        0.0,
        0.0,
        0.0,
        0.0,
        0.0,
        0.0,
        0.0,
        0.0,
        0.0,
        0.0,
        0.0,
        0.0,
        0.0
      ],
      "left_children": [
        1,
        3,
        5,
        7,
        9,
        11,
        13,
        -1,
        15,
        17,
        19,
        21,
        23,
        25,
        27,
        -1,
        -1,
        29,
        31,
        -1,
        -1,
        33,
        35,
        37,
        39,
        41,
        43,
        -1,
        45,
        -1,
        -1,
        -1,
        -1,
        -1,
        -1,
        -1,
        -1,
        -1,
        -1,
        -1,
        -1,
        -1,
        -1,
        -1,
        -1,
        -1,
        -1
      ],
      "right_children": [
        2,
        4,
        6,
        8,
        10,
        12,
        14,
        -1,
        16,
        18,
        20,
        22,
        24,
        26,
        28,
        -1,
        -1,
        30,
        32,
        -1,
        -1,
        34,
        36,
        38,
        40,
        42,
        44,
        -1,
        46,
        -1,
        -1,
        -1,
        -1,
        -1,
        -1,
        -1,
        -1,
        -1,
        -1,
        -1,
        -1,
        -1,
        -1,
        -1,
        -1,
        -1,
        -1
      ],
      "base_weights": [
        0.0,
        0.0,
        0.0,
        0.0,
        0.0,
        0.0,
        0.0,
        -0.0899160877,
        0.0,
        0.0,
        0.0,
        0.0,
        0.0,
        0.0,
        0.0,
        0.0351946838,
        -0.0602032505,
        0.0,
        0.0,
        -0.0173154101,
        0.0700041577,
        0.0,
        0.0,
        0.0,
        0.0,
        0.0,
        0.0,
        0.0253436826,
        0.0,
        -0.041868642,
        -0.077413559,
        0.093264848,
        -0.0726552457,
        -0.0624653772,
        0.0578011274,
        -0.107033841,
        0.00574291823,
        -0.0237110946,
        0.0254162997,
        0.00689989142,
        0.0667432696,
        -0.00265883585,
        0.0551463403,
        0.0287540294,
        0.0920837745,
        0.0875399634,
        0.0508380532
      ]
    },
    {
      "split_indices": [
        6,
        6,
        6,
        5,
        5,
        5,
        5,
        6,
        6,
        3,
        0,
        6,
        2,
        3,
        8,
        3,
        0,
        -1,
        5,
        2,
        6,
        0,
        -1,
        4,
        2,
        -1,
        2,
        4,
        8,
        -1,
        -1,
        -1,
        -1,
        -1,
        -1,
        -1,
        -1,
        -1,
        -1,
        -1,
        -1,
        -1,
        -1,
        -1,
        -1,
        -1,
        -1,
        -1,
        -1,
        -1,
        -1,
        -1,
        -1
      ],
      "split_conditions": [
        62.0099983,
        41.0099983,
        92.9000015,
        20.0599995,
        41.3600006,
        44.3699989,
        58.0800018,
        26.5100002,
        25.5,
        43.3199997,
        58.0699997,
        71.7699966,
        33.1899986,
        74.6500015,
        6.0,
        10.4499998,
        7.03999996,
        0.0,
        32.1199989,
        17.8199997,
        49.5900002,
        53.5800018,
        0.0,
        39.0800018,
        38.5699997,
        0.0,
        57.9799995,
        70.3099976,
        5.0,
        0.0,
        0.0,
        0.0,
        0.0,
        0.0,
        0.0,
        0.0,
        0.0,
        0.0,
        0.0,
        0.0,
        0.0,
        0.0,
        0.0,
        0.0,
        0.0,
        0.0,
        0.0,
        0.0,
        0.0,
        0.0,
        0.0,
        0.0,
        0.0
      ],
      "left_children": [
        1,
        3,
        5,
        7,
        9,
        11,
        13,
        15,
        17,
        19,
        21,
        23,
        25,
        27,
        29,
        31,
        33,
        -1,
        35,
        37,
        39,
        41,
        -1,
        43,
        45,
        -1,
        47,
        49,
        51,
        -1,
        -1,
        -1,
        -1,
        -1,
        -1,
        -1,
        -1,
        -1,
        -1,
        -1,
        -1,
        -1,
        -1,
        -1,
        -1,
        -1,
        -1,
        -1,
        -1,
        -1,
        -1,
        -1,
        -1
      ],
      "right_children": [
        2,
        4,
        6,
        8,
        10,
        12,
        14,
        16,
        18,
        20,
        22,
        24,
        26,
        28,
        30,
        32,
        34,
        -1,
        36,
        38,
        40,
        42,
        -1,
        44,
        46,
        -1,
        48,
        50,
        52,
        -1,
        -1,
        -1,
        -1,
        -1,
        -1,
        -1,
        -1,
        -1,
        -1,
        -1,
        -1,
        -1,
        -1,
        -1,
        -1,
        -1,
        -1,
        -1,
        -1,
        -1,
        -1,
        -1,
        -1
      ],
      "base_weights": [
        0.0,
        0.0,
        0.0,
        0.0,
        0.0,
        0.0,
        0.0,
        0.0,
        0.0,
        0.0,
        0.0,
        0.0,
        0.0,
        0.0,
        0.0,
        0.0,
        0.0,
        0.090908967,
        0.0,
        0.0,
        0.0,
        0.0,
        0.0921983346,
        0.0,
        0.0,
        -0.0863743946,
        0.0,
        0.0,
        0.0,
        -0.0573842861,
        0.0444224253,
        -0.00768186152,
        0.0716593191,
        -0.11817307,
        0.0196112525,
        0.0474828146,
        0.0836021677,
        -0.0339123234,
        0.0294229668,
        0.0203737915,
        -0.0779206082,
        0.0627207235,
        -0.0707237348,
        -0.0336733349,
        0.0368222594,
        -0.0918799788,
        -0.0353567973,
        0.0778930485,
        -0.00785423815,
        -0.0907239094,
        -0.046775952,
        -0.0640082583,
        0.041151166
      ]
    },
    {
      "split_indices": [
        6,
        6,
        6,
        7,
        5,
        5,
        2,
        0,
        5,
        4,
        6,
        2,
        2,
        5,
        4,
        2,
        5,
        -1,
        -1,
        1,
        6,
        4,
        0,
        4,
        0,
        2,
        4,
        -1,
        -1,
        0,
        2,
        -1,
        -1,
        -1,
        -1,
        -1,
        -1,
        -1,
        -1,
        -1,
        -1,
        -1,
        -1,
        -1,
        -1,
        -1,
        -1,
        -1,
        -1,
        -1,
        -1,
        -1,
        -1,
        -1,
        -1
      ],
      "split_conditions": [
        69.9499969,
        41.0099983,
        87.4899979,
        2.5,
        24.8500004,
        39.9399986,
        74.7300034,
        38.2999992,
        17.1499996,
        6.13000011,
        48.4399986,
        59.1599998,
        57.9799995,
        58.0800018,
        51.6599998,
        29.0799999,
        22.5400009,
        0.0,
        0.0,
        18.9300003,
        42.5299988,
        14.71,
        12.5500002,
        13.6999998,
        39.8800011,
        30.4099998,
        32.4399986,
        0.0,
        0.0,
        61.0600014,
        79.1699982,
        0.0,
        0.0,
        0.0,
        0.0,
        0.0,
        0.0,
        0.0,
        0.0,
        0.0,
        0.0,
        0.0,
        0.0,
        0.0,
        0.0,
        0.0,
        0.0,
        0.0,
        0.0,
        0.0,
        0.0,
        0.0,
        0.0,
        0.0,
        0.0
      ],
      "left_children": [
        1,
        3,
        5,
        7,
        9,
        11,
        13,
        15,
        17,
        19,
        21,
        23,
        25,
        27,
        29,
        31,
        33,
        -1,
        -1,
        35,
        37,
        39,
        41,
        43,
        45,
        47,
        49,
        -1,
        -1,
        51,
        53,
        -1,
        -1,
        -1,
        -1,
        -1,
        -1,
        -1,
        -1,
        -1,
        -1,
        -1,
        -1,
        -1,
        -1,
        -1,
        -1,
        -1,
        -1,
        -1,
        -1,
        -1,
        -1,
        -1,
        -1
      ],
      "right_children": [
        2,
        4,
        6,
        8,
        10,
        12,
        14,
        16,
        18,
        20,
        22,
        24,
        26,
        28,
        30,
        32,
        34,
        -1,
        -1,
        36,
        38,
        40,
        42,
        44,
        46,
        48,
        50,
        -1,
        -1,
        52,
        54,
        -1,
        -1,
        -1,
        -1,
        -1,
        -1,
        -1,
        -1,
        -1,
        -1,
        -1,
        -1,
        -1,
        -1,
        -1,
        -1,
        -1,
        -1,
        -1,
        -1,
        -1,
        -1,
        -1,
        -1
      ],
      "base_weights": [
        0.0,
        0.0,
        0.0,
        0.0,
        0.0,
        0.0,
        0.0,
        0.0,
        0.0,
        0.0,
        0.0,
        0.0,
        0.0,
        0.0,
        0.0,
        0.0,
        0.0,
        0.015171824,
        0.0904331654,
        0.0,
        0.0,
        0.0,
        0.0,
        0.0,
        0.0,
        0.0,
        0.0,
        -0.0879933313,
        0.00111254002,
        0.0,
        0.0,
        0.00876428466,
        0.0589166358,
        -0.0210861303,
        0.0877368823,
        0.102716282,
        -0.0863663927,
        -0.00359982252,
        -0.0903372839,
        0.00866494793,
        0.0630129203,
        -0.0670738891,
        0.0104589006,
        -0.0536164045,
        -0.0922035277,
        -0.0718407035,
        0.0893233269,
        -0.0799959376,
        0.0639198497,
        -0.0927850828,
        -0.00184236479,
        -0.0813941061,
        -0.00832899101,
        0.0891122222,
        -0.00268118456
      ]
    },
    {
      "split_indices": [
        6,
        6,
        6,
        7,
        1,
        3,
        4,
        0,
        -1,
        0,
        0,
        0,
        4,
        3,
        6,
        1,
        4,
        8,
        1,
        6,
        0,
        4,
        1,
        3,
        6,
        -1,
        4,
        4,
        -1,
        -1,
        -1,
        -1,
        -1,
        -1,
        -1,
        -1,
        -1,
        -1,
        -1,
        -1,
        -1,
        -1,
        -1,
        -1,
        -1,
        -1,
        -1,
        -1,
        -1,
        -1,
        -1,
        -1,
        -1
      ],
      "split_conditions": [
        62.0099983,
        41.0099983,
        92.9000015,
        2.5,
        31.1700001,
        66.0299988,
        66.3700027,
        42.5499992,
        0.0,
        26.9400005,
        17.7999992,
        53.8499985,
        24.4799995,
        74.6500015,
        133.740005,
        27.4699993,
        2.25999999,
        3.0,
        29.4300003,
        49.0299988,
        60.0099983,
        65.0800018,
        30.6499996,
        74.6500015,
        81.0899963,
        0.0,
        12.6800003,
        72.1600037,
        0.0,
        0.0,
        0.0,
        0.0,
        0.0,
        0.0,
        0.0,
        0.0,
        0.0,
        0.0,
        0.0,
        0.0,
        0.0,
        0.0,
        0.0,
        0.0,
        0.0,
        0.0,
        0.0,
        0.0,
        0.0,
        0.0,
        0.0,
        0.0,
        0.0
      ],
      "left_children": [
        1,
        3,
        5,
        7,
        9,
        11,
        13,
        15,
        -1,
        17,
        19,
        21,
        23,
        25,
        27,
        29,
        31,
        33,
        35,
        37,
        39,
        41,
        43,
        45,
        47,
        -1,
        49,
        51,
        -1,
        -1,
        -1,
        -1,
        -1,
        -1,
        -1,
        -1,
        -1,
        -1,
        -1,
        -1,
        -1,
        -1,
        -1,
        -1,
        -1,
        -1,
        -1,
        -1,
        -1,
        -1,
        -1,
        -1,
        -1
      ],
      "right_children": [
        2,
        4,
        6,
        8,
        10,
        12,
        14,
        16,
        -1,
        18,
        20,
        22,
        24,
        26,
        28,
        30,
        32,
        34,
        36,
        38,
        40,
        42,
        44,
        46,
        48,
        -1,
        50,
        52,
        -1,
        -1,
        -1,
        -1,
        -1,
        -1,
        -1,
        -1,
        -1,
        -1,
        -1,
        -1,
        -1,
        -1,
        -1,
        -1,
        -1,
        -1,
        -1,
        -1,
        -1,
        -1,
        -1,
        -1,
        -1
      ],
      "base_weights": [
        0.0,
        0.0,
        0.0,
        0.0,
        0.0,
        0.0,
        0.0,
        0.0,
        0.088567026,
        0.0,
        0.0,
        0.0,
        0.0,
        0.0,
        0.0,
        0.0,
        0.0,
        0.0,
        0.0,
        0.0,
        0.0,
        0.0,
        0.0,
        0.0,
        0.0,
        -0.0883926451,
        0.0,
        0.0,
        -0.0739271864,
        0.025889108,
        0.0633749664,
        0.0101919007,
        0.0858497024,
        -0.0868252888,
        0.0022330489,
        0.0207999796,
        -0.0749200806,
        0.044545006,
        -0.0689830035,
        0.0380802341,
        0.0815798342,
        -0.0556741171,
        0.0542444251,
        -0.0395366028,
        0.0227160659,
        0.100091629,
        -0.00353459897,
        -0.0735076293,
        0.00499916496,
        0.0409879908,
        -0.0586541258,
        0.0547131486,
        -0.0560107939
      ]
    },
    {
      "split_indices": [
        7,
        5,
        7,
        8,
        3,
        2,
        5,
        2,
        -1,
        2,
        4,
        1,
        0,
        7,
        3,
        0,
        -1,
        -1,
        0,
        5,
        2,
        4,
        0,
        4,
        1,
        3,
        5,
        -1,
        0,
        -1,
        -1,
        -1,
        -1,
        -1,
        -1,
        -1,
        -1,
        -1,
        -1,
        -1,
        -1,
        -1,
        -1,
        -1,
        -1,
        -1,
        -1,
        -1,
        -1,
        -1,
        -1
      ],
      "split_conditions": [
        1.39999998,
        40.3300018,
        1.79999995,
        1.0,
        32.2700005,
        20.0799999,
        32.1199989,
        63.0600014,
        0.0,
        44.4099998,
        12.6800003,
        66.0299988,
        52.7200012,
        2.5,
        74.6500015,
        56.0299988,
        0.0,
        0.0,
        61.0600014,
        42.6699982,
        82.7200012,
        3.11999989,
        31.6499996,
        4.98999977,
        23.7299995,
        40.9500008,
        17.1499996,
        0.0,
        34.9399986,
        0.0,
        0.0,
        0.0,
        0.0,
        0.0,
        0.0,
        0.0,
        0.0,
        0.0,
        0.0,
        0.0,
        0.0,
        0.0,
        0.0,
        0.0,
        0.0,
        0.0,
        0.0,
        0.0,
        0.0,
        0.0,
        0.0
      ],
      "left_children": [
        1,
        3,
        5,
        7,
        9,
        11,
        13,
        15,
        -1,
        17,
        19,
        21,
        23,
        25,
        27,
        29,
        -1,
        -1,
        31,
        33,
        35,
        37,
        39,
        41,
        43,
        45,
        47,
        -1,
        49,
        -1,
        -1,
        -1,
        -1,
        -1,
        -1,
        -1,
        -1,
        -1,
        -1,
        -1,
        -1,
        -1,
        -1,
        -1,
        -1,
        -1,
        -1,
        -1,
        -1,
        -1,
        -1
      ],
      "right_children": [
        2,
        4,
        6,
        8,
        10,
        12,
        14,
        16,
        -1,
        18,
        20,
        22,
        24,
        26,
        28,
        30,
        -1,
        -1,
        32,
        34,
        36,
        38,
        40,
        42,
        44,
        46,
        48,
        -1,
        50,
        -1,
        -1,
        -1,
        -1,
        -1,
        -1,
        -1,
        -1,
        -1,
        -1,
        -1,
        -1,
        -1,
        -1,
        -1,
        -1,
        -1,
        -1,
        -1,
        -1,
        -1,
        -1
      ],
      "base_weights": [
        0.0,
        0.0,
        0.0,
        0.0,
        0.0,
        0.0,
        0.0,
        0.0,
        -0.0862655714,
        0.0,
        0.0,
        0.0,
        0.0,
        0.0,
        0.0,
        0.0,
        0.0374952555,
        -0.0818013176,
        0.0,
        0.0,
        0.0,
        0.0,
        0.0,
        0.0,
        0.0,
        0.0,
        0.0,
        0.0829781815,
        0.0,
        -0.0836278424,
        0.000864792324,
        -0.0282659233,
        0.0518439598,
        0.0563682988,
        -0.0726751834,
        -0.0768063888,
        0.015243791,
        0.0463937223,
        -0.0780872256,
        0.0974490643,
        -0.0275380947,
        0.076910682,
        -0.00557616539,
        0.00291853282,
        0.0691653863,
        0.03577004,
        -0.0348767638,
        0.0227743592,
        0.0872220173,
        -0.0202505551,
        0.0678656846
      ]
    },
    {
      "split_indices": [
        6,
        7,
        6,
        5,
        5,
        2,
        5,
        0,
        6,
        -1,
        -1,
        2,
        0,
        2,
        1,
        6,
        2,
        -1,
        6,
        2,
        -1,
        1,
        2,
        -1,
        2,
        -1,
        -1,
        -1,
        -1,
        -1,
        -1,
        -1,
        -1,
        -1,
        -1,
        -1,
        -1,
        -1,
        -1,
        -1,
        -1
      ],
      "split_conditions": [
        51.1100006,
        2.5,
        92.9000015,
        34.1899986,
        17.1499996,
        20.0799999,
        58.0800018,
        26.9400005,
        48.4399986,
        0.0,
        0.0,
        12.0100002,
        55.5099983,
        75.6100006,
        56.4000015,
        41.0099983,
        17.8199997,
        0.0,
        50.3699989,
        10.9899998,
        0.0,
        34.8499985,
        41.5200005,
        0.0,
        79.1699982,
        0.0,
        0.0,
        0.0,
        0.0,
        0.0,
        0.0,
        0.0,
        0.0,
        0.0,
        0.0,
        0.0,
        0.0,
        0.0,
        0.0,
        0.0,
        0.0
      ],
      "left_children": [
        1,
        3,
        5,
        7,
        9,
        11,
        13,
        15,
        17,
        -1,
        -1,
        19,
        21,
        23,
        25,
        27,
        29,
        -1,
        31,
        33,
        -1,
        35,
        37,
        -1,
        39,
        -1,
        -1,
        -1,
        -1,
        -1,
        -1,
        -1,
        -1,
        -1,
        -1,
        -1,
        -1,
        -1,
        -1,
        -1,
        -1
      ],
      "right_children": [
        2,
        4,
        6,
        8,
        10,
        12,
        14,
        16,
        18,
        -1,
        -1,
        20,
        22,
        24,
        26,
        28,
        30,
        -1,
        32,
        34,
        -1,
        36,
        38,
        -1,
        40,
        -1,
        -1,
        -1,
        -1,
        -1,
        -1,
        -1,
        -1,
        -1,
        -1,
        -1,
        -1,
        -1,
        -1,
        -1,
        -1
      ],
      "base_weights": [
        0.0,
        0.0,
        0.0,
        0.0,
        0.0,
        0.0,
        0.0,
        0.0,
        0.0,
        0.0219124071,
        0.0876442492,
        0.0,
        0.0,
        0.0,
        0.0,
        0.0,
        0.0,
        0.0787011832,
        0.0,
        0.0,
        -0.0974505395,
        0.0,
        0.0,
        -0.0853122622,
        0.0,
        -0.00208898308,
        0.0151302619,
        0.0238183253,
        -0.0624882765,
        -0.00181271473,
        0.0577348508,
        -0.007892319,
        0.106782302,
        -0.0666093081,
        0.0808798224,
        -0.0416617431,
        -0.00328276586,
        -0.00765917357,
        0.0437024161,
        0.00632038154,
        -0.0738695636
      ]
    },
    {
      "split_indices": [
        6,
        6,
        6,
        0,
        5,
        5,
        5,
        1,
        1,
        1,
        1,
        1,
        5,
        -1,
        -1,
        6,
        6,
        6,
        6,
        1,
        0,
        -1,
        -1,
        3,
        -1,
        9,
        0,
        -1,
        -1,
        -1,
        -1,
        -1,
        -1,
        -1,
        -1,
        -1,
        -1,
        -1,
        -1,
        -1,
        -1,
        -1,
        -1,
        -1,
        -1
      ],
      "split_conditions": [
        62.0099983,
        41.0099983,
        92.9000015,
        21.1700001,
        45.3300018,
        30.6000004,
        58.0800018,
        13.6000004,
        5.30999994,
        12.2600002,
        69.6699982,
        15.8299999,
        30.8500004,
        0.0,
        0.0,
        30.2900009,
        24.3199997,
        31.8899994,
        27.2700005,
        7.01999998,
        23.0499992,
        0.0,
        0.0,
        10.8500004,
        0.0,
        2.0,
        54.6699982,
        0.0,
        0.0,
        0.0,
        0.0,
        0.0,
        0.0,
        0.0,
        0.0,
        0.0,
        0.0,
        0.0,
        0.0,
        0.0,
        0.0,
        0.0,
        0.0,
        0.0,
        0.0
      ],
      "left_children": [
        1,
        3,
        5,
        7,
        9,
        11,
        13,
        15,
        17,
        19,
        21,
        23,
        25,
        -1,
        -1,
        27,
        29,
        31,
        33,
        35,
        37,
        -1,
        -1,
        39,
        -1,
        41,
        43,
        -1,
        -1,
        -1,
        -1,
        -1,
        -1,
        -1,
        -1,
        -1,
        -1,
        -1,
        -1,
        -1,
        -1,
        -1,
        -1,
        -1,
        -1
      ],
      "right_children": [
        2,
        4,
        6,
        8,
        10,
        12,
        14,
        16,
        18,
        20,
        22,
        24,
        26,
        -1,
        -1,
        28,
        30,
        32,
        34,
        36,
        38,
        -1,
        -1,
        40,
        -1,
        42,
        44,
        -1,
        -1,
        -1,
        -1,
        -1,
        -1,
        -1,
        -1,
        -1,
        -1,
        -1,
        -1,
        -1,
        -1,
        -1,
        -1,
        -1,
        -1
      ],
      "base_weights": [
        0.0,
        0.0,
        0.0,
        0.0,
        0.0,
        0.0,
        0.0,
        0.0,
        0.0,
        0.0,
        0.0,
        0.0,
        0.0,
        -0.0837579444,
        -0.00991791021,
        0.0,
        0.0,
        0.0,
        0.0,
        0.0,
        0.0,
        0.0883612409,
        0.0297009218,
        0.0,
        -0.0894759744,
        0.0,
        0.0,
        -0.00369491894,
        -0.126726374,
        0.0816996396,
        0.0359175615,
        0.0677885637,
        -0.0367498249,
        0.0859363601,
        0.0690178201,
        0.0299999714,
        -0.0985047445,
        -0.0193366129,
        0.0267905984,
        0.0387760811,
        -0.0570487864,
        0.130173773,
        0.0247123875,
        -0.0379644036,
        0.0118728448
      ]
    },
    {
      "split_indices": [
        6,
        6,
        6,
        6,
        5,
        2,
        5,
        5,
        1,
        3,
        3,
        4,
        8,
        2,
        8,
        -1,
        -1,
        5,
        5,
        1,
        6,
        4,
        -1,
        6,
        1,
        5,
        5,
        3,
        4,
        -1,
        -1,
        -1,
        -1,
        -1,
        -1,
        -1,
        -1,
        -1,
        -1,
        -1,
        -1,
        -1,
        -1,
        -1,
        -1,
        -1,
        -1,
        -1,
        -1,
        -1,
        -1,
        -1,
        -1
      ],
      "split_conditions": [
        62.0099983,
        41.0099983,
        87.4899979,
        25.5,
        37.2400017,
        31.1700001,
        58.0800018,
        17.1499996,
        5.30999994,
        42.7999992,
        70.5199966,
        7.86000013,
        5.0,
        74.7300034,
        7.0,
        0.0,
        0.0,
        29.6599998,
        35.5900002,
        12.2600002,
        47.3199997,
        33.7000008,
        0.0,
        67.7799988,
        17.9200001,
        30.6900005,
        50.1500015,
        74.6500015,
        51.3600006,
        0.0,
        0.0,
        0.0,
        0.0,
        0.0,
        0.0,
        0.0,
        0.0,
        0.0,
        0.0,
        0.0,
        0.0,
        0.0,
        0.0,
        0.0,
        0.0,
        0.0,
        0.0,
        0.0,
        0.0,
        0.0,
        0.0,
        0.0,
        0.0
      ],
      "left_children": [
        1,
        3,
        5,
        7,
        9,
        11,
        13,
        15,
        17,
        19,
        21,
        23,
        25,
        27,
        29,
        -1,
        -1,
        31,
        33,
        35,
        37,
        39,
        -1,
        41,
        43,
        45,
        47,
        49,
        51,
        -1,
        -1,
        -1,
        -1,
        -1,
        -1,
        -1,
        -1,
        -1,
        -1,
        -1,
        -1,
        -1,
        -1,
        -1,
        -1,
        -1,
        -1,
        -1,
        -1,
        -1,
        -1,
        -1,
        -1
      ],
      "right_children": [
        2,
        4,
        6,
        8,
        10,
        12,
        14,
        16,
        18,
        20,
        22,
        24,
        26,
        28,
        30,
        -1,
        -1,
        32,
        34,
        36,
        38,
        40,
        -1,
        42,
        44,
        46,
        48,
        50,
        52,
        -1,
        -1,
        -1,
        -1,
        -1,
        -1,
        -1,
        -1,
        -1,
        -1,
        -1,
        -1,
        -1,
        -1,
        -1,
        -1,
        -1,
        -1,
        -1,
        -1,
        -1,
        -1,
        -1,
        -1
      ],
      "base_weights": [
        0.0,
        0.0,
        0.0,
        0.0,
        0.0,
        0.0,
        0.0,
        0.0,
        0.0,
        0.0,
        0.0,
        0.0,
        0.0,
        0.0,
        0.0,
        0.0220056735,
        0.0843213722,
        0.0,
        0.0,
        0.0,
        0.0,
        0.0,
        -0.0631965995,
        0.0,
        0.0,
        0.0,
        0.0,
        0.0,
        0.0,
        -0.00726693729,
        0.0659577325,
        -0.107265994,
        0.0474695005,
        0.0411375314,
        0.0823748484,
        -0.0634439141,
        0.0157129299,
        0.0105699264,
        -0.103089251,
        0.0692654625,
        0.0238035824,
        0.0821653232,
        -0.0655555725,
        -0.024220122,
        -0.0865812823,
        -0.0589102171,
        0.0286989305,
        -0.0517811626,
        0.0401845798,
        -0.0841967091,
        -0.00995806046,
        -0.0625283346,
        0.0606860816
      ]
    },
    {
      "split_indices": [
        6,
        6,
        6,
        5,
        5,
        5,
        4,
        4,
        0,
        4,
        5,
        8,
        1,
        -1,
        5,
        1,
        6,
        6,
        -1,
        1,
        -1,
        6,
        6,
        1,
        1,
        -1,
        0,
        -1,
        4,
        -1,
        -1,
        -1,
        -1,
        -1,
        -1,
        -1,
        -1,
        -1,
        -1,
        -1,
        -1,
        -1,
        -1,
        -1,
        -1,
        -1,
        -1,
        -1,
        -1
      ],
      "split_conditions": [
        71.7699966,
        41.0099983,
        92.9000015,
        28.1100006,
        24.8500004,
        46.4099998,
        66.3700027,
        14.9399996,
        34.75,
        17.0499992,
        46.6300011,
        1.0,
        36.9199982,
        0.0,
        46.25,
        10.8299999,
        24.3199997,
        30.2900009,
        0.0,
        18.9300003,
        0.0,
        49.0299988,
        67.7799988,
        22.4200001,
        48.9700012,
        0.0,
        48.5600014,
        0.0,
        72.1600037,
        0.0,
        0.0,
        0.0,
        0.0,
        0.0,
        0.0,
        0.0,
        0.0,
        0.0,
        0.0,
        0.0,
        0.0,
        0.0,
        0.0,
        0.0,
        0.0,
        0.0,
        0.0,
        0.0,
        0.0
      ],
      "left_children": [
        1,
        3,
        5,
        7,
        9,
        11,
        13,
        15,
        17,
        19,
        21,
        23,
        25,
        -1,
        27,
        29,
        31,
        33,
        -1,
        35,
        -1,
        37,
        39,
        41,
        43,
        -1,
        45,
        -1,
        47,
        -1,
        -1,
        -1,
        -1,
        -1,
        -1,
        -1,
        -1,
        -1,
        -1,
        -1,
        -1,
        -1,
        -1,
        -1,
        -1,
        -1,
        -1,
        -1,
        -1
      ],
      "right_children": [
        2,
        4,
        6,
        8,
        10,
        12,
        14,
        16,
        18,
        20,
        22,
        24,
        26,
        -1,
        28,
        30,
        32,
        34,
        -1,
        36,
        -1,
        38,
        40,
        42,
        44,
        -1,
        46,
        -1,
        48,
        -1,
        -1,
        -1,
        -1,
        -1,
        -1,
        -1,
        -1,
        -1,
        -1,
        -1,
        -1,
        -1,
        -1,
        -1,
        -1,
        -1,
        -1,
        -1,
        -1
      ],
      "base_weights": [
        0.0,
        0.0,
        0.0,
        0.0,
        0.0,
        0.0,
        0.0,
        0.0,
        0.0,
        0.0,
        0.0,
        0.0,
        0.0,
        -0.0844000429,
        0.0,
        0.0,
        0.0,
        0.0,
        0.0849823058,
        0.0,
        -0.103135087,
        0.0,
        0.0,
        0.0,
        0.0,
        -0.0735694692,
        0.0,
        -0.068498306,
        0.0,
        -0.00338761718,
        0.0794968233,
        0.0688033253,
        -0.0230312888,
        0.0758031756,
        0.0319138914,
        0.0482560918,
        -0.0763277858,
        0.0344749205,
        -0.00139879307,
        0.0824613348,
        0.00230589509,
        0.137904719,
        -0.0727771297,
        -0.0797548294,
        -0.0127219986,
        -0.0239169449,
        0.0690726116,
        0.0756721646,
        -0.0554320998
      ]
    },
    {
      "split_indices": [
        6,
        5,
        6,
        6,
        6,
        5,
        5,
        5,
        0,
        3,
        9,
        6,
        0,
        3,
        -1,
        -1,
        -1,
        1,
        4,
        4,
        0,
        0,
        0,
        3,
        6,
        4,
        9,
        4,
        0,
        -1,
        -1,
        -1,
        -1,
        -1,
        -1,
        -1,
        -1,
        -1,
        -1,
        -1,
        -1,
        -1,
        -1,
        -1,
        -1,
        -1,
        -1,
        -1,
        -1,
        -1,
        -1,
        -1,
        -1
      ],
      "split_conditions": [
        51.1100006,
        32.4199982,
        92.9000015,
        24.3199997,
        48.4399986,
        39.5800018,
        58.0800018,
        17.7399998,
        26.9400005,
        74.6500015,
        6.0,
        73.9899979,
        58.6800003,
        74.6500015,
        0.0,
        0.0,
        0.0,
        15.5699997,
        17.5,
        2.25999999,
        34.9399986,
        53.5800018,
        42.0800018,
        44.6800003,
        91.4899979,
        60.9900017,
        5.0,
        66.3700027,
        45.2900009,
        0.0,
        0.0,
        0.0,
        0.0,
        0.0,
        0.0,
        0.0,
        0.0,
        0.0,
        0.0,
        0.0,
        0.0,
        0.0,
        0.0,
        0.0,
        0.0,
        0.0,
        0.0,
        0.0,
        0.0,
        0.0,
        0.0,
        0.0,
        0.0
      ],
      "left_children": [
        1,
        3,
        5,
        7,
        9,
        11,
        13,
        15,
        17,
        19,
        21,
        23,
        25,
        27,
        -1,
        -1,
        -1,
        29,
        31,
        33,
        35,
        37,
        39,
        41,
        43,
        45,
        47,
        49,
        51,
        -1,
        -1,
        -1,
        -1,
        -1,
        -1,
        -1,
        -1,
        -1,
        -1,
        -1,
        -1,
        -1,
        -1,
        -1,
        -1,
        -1,
        -1,
        -1,
        -1,
        -1,
        -1,
        -1,
        -1
      ],
      "right_children": [
        2,
        4,
        6,
        8,
        10,
        12,
        14,
        16,
        18,
        20,
        22,
        24,
        26,
        28,
        -1,
        -1,
        -1,
        30,
        32,
        34,
        36,
        38,
        40,
        42,
        44,
        46,
        48,
        50,
        52,
        -1,
        -1,
        -1,
        -1,
        -1,
        -1,
        -1,
        -1,
        -1,
        -1,
        -1,
        -1,
        -1,
        -1,
        -1,
        -1,
        -1,
        -1,
        -1,
        -1,
        -1,
        -1,
        -1,
        -1
      ],
      "base_weights": [
        0.0,
        0.0,
        0.0,
        0.0,
        0.0,
        0.0,
        0.0,
        0.0,
        0.0,
        0.0,
        0.0,
        0.0,
        0.0,
        0.0,
        0.0126015134,
        0.0188905783,
        0.0827236623,
        0.0,
        0.0,
        0.0,
        0.0,
        0.0,
        0.0,
        0.0,
        0.0,
        0.0,
        0.0,
        0.0,
        0.0,
        -0.0890779123,
        -0.00281635299,
        0.0575226396,
        0.00978531502,
        0.0108135659,
        0.0804553702,
        -0.0322136581,
        0.0588291138,
        0.0598206073,
        -0.0301561151,
        -0.0913074017,
        0.0279520191,
        -0.00838699471,
        -0.0696028993,
        -0.0773237348,
        0.015044014,
        -0.0179067198,
        0.0563120879,
        0.0108188316,
        0.0718309507,
        -0.0834657401,
        -0.0388761945,
        -0.0507423393,
        0.0467565395
      ]
    },
    {
      "split_indices": [
        6,
        6,
        0,
        6,
        2,
        4,
        6,
        2,
        0,
        3,
        0,
        1,
        8,
        2,
        -1,
        0,
        -1,
        2,
        4,
        3,
        3,
        2,
        4,
        -1,
        -1,
        -1,
        -1,
        3,
        2,
        -1,
        -1,
        -1,
        -1,
        -1,
        -1,
        -1,
        -1,
        -1,
        -1,
        -1,
        -1,
        -1,
        -1,
        -1,
        -1,
        -1,
        -1
      ],
      "split_conditions": [
        73.9899979,
        41.0099983,
        53.8499985,
        25.5,
        22.9899998,
        66.3700027,
        112.800003,
        12.2700005,
        42.5499992,
        46.2000008,
        19.5100002,
        83.4700012,
        2.0,
        37.1199989,
        0.0,
        18.5699997,
        0.0,
        23.9400005,
        2.53999996,
        36.7200012,
        67.9100037,
        52.0299988,
        2.25999999,
        0.0,
        0.0,
        0.0,
        0.0,
        62.1399994,
        38.9199982,
        0.0,
        0.0,
        0.0,
        0.0,
        0.0,
        0.0,
        0.0,
        0.0,
        0.0,
        0.0,
        0.0,
        0.0,
        0.0,
        0.0,
        0.0,
        0.0,
        0.0,
        0.0
      ],
      "left_children": [
        1,
        3,
        5,
        7,
        9,
        11,
        13,
        15,
        17,
        19,
        21,
        23,
        25,
        27,
        -1,
        29,
        -1,
        31,
        33,
        35,
        37,
        39,
        41,
        -1,
        -1,
        -1,
        -1,
        43,
        45,
        -1,
        -1,
        -1,
        -1,
        -1,
        -1,
        -1,
        -1,
        -1,
        -1,
        -1,
        -1,
        -1,
        -1,
        -1,
        -1,
        -1,
        -1
      ],
      "right_children": [
        2,
        4,
        6,
        8,
        10,
        12,
        14,
        16,
        18,
        20,
        22,
        24,
        26,
        28,
        -1,
        30,
        -1,
        32,
        34,
        36,
        38,
        40,
        42,
        -1,
        -1,
        -1,
        -1,
        44,
        46,
        -1,
        -1,
        -1,
        -1,
        -1,
        -1,
        -1,
        -1,
        -1,
        -1,
        -1,
        -1,
        -1,
        -1,
        -1,
        -1,
        -1,
        -1
      ],
      "base_weights": [
        0.0,
        0.0,
        0.0,
        0.0,
        0.0,
        0.0,
        0.0,
        0.0,
        0.0,
        0.0,
        0.0,
        0.0,
        0.0,
        0.0,
        -0.0824583992,
        0.0,
        0.0833552405,
        0.0,
        0.0,
        0.0,
        0.0,
        0.0,
        0.0,
        -0.0842518881,
        0.00505388668,
        0.063147597,
        -0.0711119622,
        0.0,
        0.0,
        -0.0257717445,
        0.0676989853,
        -0.0212994311,
        0.0391883217,
        0.00767268706,
        0.0813304856,
        -0.0252328981,
        0.051327765,
        -0.114926852,
        0.0123139592,
        -0.0437618829,
        0.0085849436,
        -0.101104714,
        0.0242548715,
